// #### Generated By: http://www.cufonfonts.com ####
/*!
 * The following copyright notice may not be removed under any circumstances.
 * 
 * Copyright:
 * Caviar Dreams © Lauren Thompson (Nymphont) 2009. All rights reserved.
 * 
 * Description:
 * This font was created using FontCreator 5.6 from High-Logic.com
 * 
 * Designer:
 * Lauren Thompson
 * 
 * License information:
 * http://novelhunter.com.googlepages.com/nymphont.html
 */
Cufon.registerFont({"w":1250,"face":{"font-family":"Caviar Dreams","font-weight":300,"font-stretch":"normal","units-per-em":"2048","panose-1":"2 11 2 2 2 2 4 2 5 4","ascent":"1638","descent":"-410","x-height":"27","bbox":"-50 -1856 1767 375","underline-thickness":"150","underline-position":"-142","unicode-range":"U+0020-U+20AC"},"glyphs":{" ":{"w":708},"\u00a0":{"w":708},"!":{"d":"215,-165v48,0,90,41,90,89v0,49,-42,90,-90,90v-48,0,-90,-41,-90,-90v0,-48,42,-89,90,-89xm258,-1600r0,1324r-90,0r0,-1324r90,0","w":430},"\"":{"d":"125,-997r0,-600r90,0r0,600r-90,0xm360,-997r0,-600r90,0r0,600r-90,0","w":575},"#":{"d":"763,-985r230,0r111,-445r90,0r-111,445r445,0r-23,90r-445,0r-57,230r445,0r-23,90r-445,0r-111,445r-90,0r111,-445r-230,0r-111,445r-90,0r111,-445r-445,0r23,-90r445,0r57,-230r-445,0r23,-90r445,0r111,-445r90,0xm970,-895r-230,0r-57,230r230,0","w":1653},"$":{"d":"556,-189v144,-19,270,-160,270,-319v0,-175,-138,-288,-270,-348r0,667xm466,-1413v-91,13,-171,103,-169,203v2,115,83,177,169,225r0,-428xm911,-508v0,206,-166,387,-355,406r0,140r-90,0r0,-139v-181,-10,-343,-169,-366,-344r82,-30v12,147,139,276,284,288r0,-704v-132,-57,-253,-153,-256,-319v-3,-145,120,-277,256,-289r0,-163r90,0r0,165v100,16,193,94,222,189r-78,31v-22,-63,-78,-117,-144,-133r0,464v176,67,355,214,355,438","w":1011},"%":{"d":"1107,-1314r-918,1311r-74,-51r918,-1311xm311,-1215v125,0,231,106,231,231v0,125,-106,231,-231,231v-125,0,-231,-106,-231,-231v0,-125,106,-231,231,-231xm455,-984v0,-78,-67,-144,-144,-144v-78,0,-144,66,-144,144v0,78,66,144,144,144v77,0,144,-67,144,-144xm911,-615v125,0,231,106,231,231v0,125,-106,231,-231,231v-125,0,-231,-106,-231,-231v0,-125,106,-231,231,-231xm1055,-384v0,-78,-67,-144,-144,-144v-78,0,-144,66,-144,144v0,78,66,144,144,144v77,0,144,-67,144,-144","w":1221},"&":{"d":"163,-456v0,208,178,386,386,386v169,0,321,-122,366,-261v-66,-19,-149,-132,-213,-169v-63,-36,-136,11,-136,77v0,71,57,98,136,84r-9,82v-121,29,-214,-50,-214,-166v0,-130,142,-217,265,-152v38,20,148,136,189,157v90,47,195,-16,194,-112v-1,-94,-83,-150,-182,-121r-1,-89v186,-47,335,145,241,315v-36,65,-94,103,-182,110v-52,177,-243,334,-454,334v-255,0,-474,-220,-474,-475v0,-241,172,-430,381,-493v-103,-48,-223,-160,-223,-333v0,-180,157,-337,339,-337v142,0,278,99,316,218r-81,32v-30,-86,-128,-162,-235,-162v-134,0,-249,114,-249,249v0,127,121,244,201,276v40,15,90,23,150,24r0,84r-72,2v-146,27,-256,81,-329,161v-73,80,-110,173,-110,279","w":1304},"'":{"d":"125,-997r0,-600r90,0r0,600r-90,0","w":340},"(":{"d":"603,117v-315,-120,-503,-465,-503,-917v0,-293,68,-524,204,-694v87,-110,187,-184,299,-223r0,89v-264,128,-425,421,-425,828v0,411,161,699,425,832r0,85","w":703},")":{"d":"525,-800v0,-408,-160,-699,-425,-828r0,-89v315,119,503,466,503,917v0,293,-68,524,-204,694v-88,110,-187,184,-299,223r0,-85v263,-132,425,-422,425,-832","w":703},"*":{"d":"445,-1384r174,-122r52,74r-193,135r193,135r-52,74r-174,-122r0,213r-90,0r0,-214r-175,123r-52,-74r193,-135r-193,-135r52,-74r175,123r0,-214r90,0r0,213","w":800},"+":{"d":"480,-547r-355,0r0,-90r355,0r0,-355r90,0r0,355r355,0r0,90r-355,0r0,355r-90,0r0,-355","w":1050},",":{"d":"279,-166r-185,385r-84,0r103,-385r166,0","w":379},"-":{"d":"125,-637r590,0r0,90r-590,0r0,-90","w":840},"\u00ad":{"d":"125,-637r590,0r0,90r-590,0r0,-90","w":840},".":{"d":"190,-165v48,0,90,41,90,89v0,49,-42,90,-90,90v-48,0,-90,-41,-90,-90v0,-48,42,-89,90,-89","w":380},"\/":{"d":"674,-1600r103,0r-725,1600r-102,0","w":727},"0":{"d":"625,-68v244,0,454,-209,454,-453r0,-530v7,-244,-210,-453,-454,-453v-244,0,-454,209,-454,453r0,530v-7,244,210,453,454,453xm625,-1600v296,0,549,254,549,549r0,530v8,295,-254,549,-549,549v-294,0,-549,-255,-549,-549r0,-530v-8,-294,255,-549,549,-549"},"1":{"d":"717,-1600r0,1600r-90,0r0,-1442r-95,0r123,-158r62,0"},"2":{"d":"622,-1622v257,0,477,221,477,478v0,131,-46,245,-137,344v-139,151,-338,281,-506,410v-105,80,-172,179,-198,300r841,0r0,90r-943,0v31,-207,103,-351,212,-434v183,-139,374,-263,528,-433v72,-80,109,-172,109,-277v0,-206,-177,-383,-383,-383v-193,0,-366,158,-380,341r-91,-33v28,-215,236,-403,471,-403"},"3":{"d":"622,-73v206,0,389,-177,383,-383v-8,-249,-188,-396,-436,-437r-75,-2r0,-90v150,-4,197,-32,282,-121v47,-49,69,-108,69,-176v0,-133,-113,-246,-246,-246v-107,0,-203,75,-233,163r-86,-34v38,-124,175,-223,319,-223v184,0,342,158,342,340v0,95,-25,170,-76,224v-51,54,-98,90,-142,108v205,62,376,255,376,494v0,257,-220,478,-477,478v-235,0,-443,-188,-471,-403r91,-33v15,183,187,341,380,341"},"4":{"d":"833,-1600r90,0r0,1042r153,0r0,90r-153,0r0,468r-90,0r0,-468r-660,0xm833,-1406r-505,848r505,0r0,-848"},"5":{"d":"181,-281v99,165,388,262,606,141v149,-83,253,-213,253,-422v0,-228,-153,-397,-337,-457v-152,-49,-295,-30,-460,21r-72,-63r184,-507r0,-32r500,0r0,90r-425,0r-148,407v125,-45,310,-56,447,-6v149,55,263,146,336,284v72,136,87,275,43,433v-74,263,-368,477,-709,376v-120,-36,-214,-101,-282,-194"},"6":{"d":"628,-975v-244,0,-454,210,-454,454v0,244,210,453,454,453v244,0,454,-209,454,-453v0,-244,-210,-454,-454,-454xm628,28v-290,0,-549,-248,-549,-532r-6,0v7,-235,63,-428,170,-577v110,-156,263,-340,423,-519r124,0r-42,50v-175,196,-314,367,-417,513v-22,31,-42,63,-59,97v101,-87,219,-131,356,-131v296,0,549,254,549,550v0,295,-254,549,-549,549"},"7":{"d":"828,-1046v-175,196,-314,367,-417,513v-103,146,-157,324,-164,533r-94,0v7,-235,63,-428,170,-577v107,-149,239,-312,396,-488v157,-176,249,-324,275,-445r-841,0r0,-90r943,0v-4,173,-93,358,-268,554"},"8":{"d":"201,-456v-4,219,186,408,425,381v238,26,423,-163,423,-381v0,-245,-183,-392,-424,-435v-242,44,-419,189,-424,435xm1143,-456v0,269,-229,505,-518,476v-291,29,-518,-208,-518,-476v0,-238,172,-432,376,-494v-44,-18,-91,-54,-142,-108v-51,-54,-76,-129,-76,-224v1,-193,162,-340,378,-340v184,0,342,158,342,340v0,95,-25,170,-76,224v-51,54,-98,90,-142,108v205,62,376,255,376,494xm889,-1282v1,-139,-117,-245,-265,-245v-147,0,-263,107,-263,245v0,126,119,241,198,273v20,7,42,13,66,17v93,-16,126,-44,195,-114v47,-48,69,-108,69,-176"},"9":{"d":"622,-597v244,0,454,-210,454,-454v0,-244,-210,-453,-454,-453v-244,0,-454,209,-454,453v0,244,210,454,454,454xm622,-1600v290,0,549,248,549,532r6,0v-7,235,-63,428,-170,577v-110,156,-263,340,-423,519r-124,0r42,-50v175,-196,314,-367,417,-513v22,-31,42,-63,59,-97v-101,87,-219,131,-356,131v-296,0,-549,-254,-549,-550v0,-295,254,-549,549,-549"},":":{"d":"215,-165v48,0,90,41,90,89v0,49,-42,90,-90,90v-48,0,-90,-41,-90,-90v0,-48,42,-89,90,-89xm215,-782v48,0,90,41,90,89v0,49,-42,90,-90,90v-48,0,-90,-41,-90,-90v0,-48,42,-89,90,-89","w":430},";":{"d":"352,-166r-185,385r-84,0r103,-385r166,0xm215,-782v48,0,90,41,90,89v0,49,-42,90,-90,90v-48,0,-90,-41,-90,-90v0,-48,42,-89,90,-89","w":477},"\u037e":{"d":"352,-166r-185,385r-84,0r103,-385r166,0xm215,-782v48,0,90,41,90,89v0,49,-42,90,-90,90v-48,0,-90,-41,-90,-90v0,-48,42,-89,90,-89","w":477},"<":{"d":"1249,-145r-1149,-418r1149,-418r0,96r-886,322r886,322r0,96","w":1349},"=":{"d":"125,-797r800,0r0,90r-800,0r0,-90xm125,-477r800,0r0,90r-800,0r0,-90","w":1050},">":{"d":"100,-241r886,-322r-886,-322r0,-96r1149,418r-1149,418r0,-96","w":1349},"?":{"d":"467,-1540v199,0,338,138,338,339v0,49,-12,98,-35,146v-41,85,-112,159,-203,237v-115,99,-217,213,-217,395v0,43,8,86,23,129r-83,29v-44,-127,-35,-247,21,-362v53,-111,141,-200,241,-289v94,-84,162,-150,162,-286v0,-149,-103,-250,-249,-250v-147,0,-241,101,-250,246r-88,-4v12,-197,142,-330,340,-330xm326,-165v48,0,90,41,90,89v0,49,-42,90,-90,90v-48,0,-90,-41,-90,-90v0,-48,42,-89,90,-89","w":956},"@":{"d":"816,-269v131,0,248,-99,272,-214r0,-132v-24,-115,-141,-215,-272,-215v-151,0,-279,131,-279,282v0,150,129,279,279,279xm1204,-130v-103,-6,-128,-73,-118,-183v-81,85,-171,127,-272,127v-194,0,-364,-170,-364,-362v0,-195,169,-365,364,-365v101,0,191,42,272,127r0,-114r81,0r0,648v12,29,30,43,55,43v29,0,70,-37,122,-111v52,-74,78,-149,78,-227v0,-326,-283,-608,-608,-608v-326,0,-606,283,-606,608v0,326,281,606,606,606v115,0,198,-16,251,-49r57,60v-80,47,-183,70,-308,70v-368,0,-689,-320,-689,-687v0,-368,321,-689,689,-689v369,0,687,321,687,689v0,148,-148,426,-297,417","w":1626},"A":{"d":"890,-703r-244,-671r-244,671r488,0xm923,-613r-554,0r-223,613r-96,0r596,-1637r595,1637r-95,0","w":1291,"k":{"Y":291,"V":291,"T":133}},"B":{"d":"976,-551v0,283,-238,551,-516,551r-310,0r0,-1600r284,-1v159,-5,298,139,298,298v0,83,-42,160,-127,231v75,15,143,61,211,132v105,109,160,237,160,389xm881,-551v0,-244,-210,-461,-454,-454r-187,0r0,915r220,1v225,-9,421,-228,421,-462xm646,-1303v0,-118,-95,-207,-212,-207r-194,0r0,409r217,0v104,-8,189,-90,189,-202","w":1066},"C":{"d":"217,-800v0,392,336,728,727,728v185,0,346,-61,483,-183r68,61v-156,142,-340,213,-551,213v-441,0,-819,-378,-819,-819v0,-440,378,-819,819,-819v211,0,395,71,551,213r-68,62v-137,-122,-298,-183,-483,-183v-391,0,-727,337,-727,727","w":1595},"D":{"d":"240,-1506r0,1413v241,1,423,-65,554,-192v282,-271,282,-758,0,-1030v-131,-126,-313,-192,-554,-191xm150,-1600v31,1,74,2,97,2v263,0,465,76,612,218v317,307,316,853,0,1160v-166,161,-398,227,-709,220r0,-1600","w":1199},"E":{"d":"950,-1600r0,90r-710,0r0,665r710,0r0,90r-710,0r0,665r710,0r0,90r-800,0r0,-1600r800,0","w":1075},"F":{"d":"850,-1600r0,90r-610,0r0,665r610,0r0,90r-610,0r0,755r-90,0r0,-1600r700,0","w":975,"k":{".":460,",":433}},"G":{"d":"217,-800v0,392,336,728,727,728v172,0,324,-53,455,-159r0,-488r90,0r0,520v-152,145,-334,218,-545,218v-441,0,-819,-378,-819,-819v0,-440,378,-819,819,-819v211,0,395,71,551,213r-68,62v-137,-122,-298,-183,-483,-183v-391,0,-727,337,-727,727","w":1620},"H":{"d":"240,-717r0,717r-90,0r0,-1600r90,0r0,793r670,0r0,-793r90,0r0,1600r-90,0r0,-717r-670,0","w":1150},"I":{"d":"260,-1600r0,1600r-90,0r0,-1600r90,0","w":430},"J":{"d":"416,-76v110,0,196,-89,196,-213r0,-1311r90,0r0,1326v5,161,-131,288,-286,288v-149,0,-293,-135,-291,-273r89,-23v-4,113,92,206,202,206","w":857},"K":{"d":"240,-775r0,775r-90,0r0,-1600r90,0r0,681r511,-681r116,0r-480,644r620,956r-111,0r-568,-884","w":1097},"L":{"d":"150,0r0,-1600r90,0r0,1510r620,0r0,90r-710,0","w":950,"k":{"y":127,"Y":322,"V":322,"T":165}},"M":{"d":"253,-1600r601,1040r600,-1040r103,0r-4,7r0,1593r-90,0r0,-1437r-609,1054r-610,-1054r0,1437r-90,0r0,-1593r-4,-7r103,0","w":1707},"N":{"d":"150,-1600r99,0r822,1423r0,-1423r90,0r0,1600r-90,0r-831,-1437r0,1437r-90,0r0,-1600","w":1311},"O":{"d":"946,-1623v441,0,821,380,821,821v0,441,-380,821,-821,821v-441,0,-821,-380,-821,-821v0,-441,380,-821,821,-821xm1675,-802v0,-392,-337,-729,-729,-729v-392,0,-729,337,-729,729v0,392,337,730,729,730v392,0,729,-338,729,-730","w":1892},"P":{"d":"1034,-1078v0,281,-242,531,-522,523r-272,0r0,555r-90,0r0,-1600r420,0v251,28,464,254,464,522xm943,-1078v0,-232,-200,-431,-431,-431r-272,0r0,863r272,0v231,6,431,-200,431,-432","w":1089,"k":{".":574,",":547}},"Q":{"d":"1675,-802v0,-392,-337,-729,-729,-729v-392,0,-729,337,-729,729v0,392,337,730,729,730v392,0,729,-338,729,-730xm1057,81v-107,0,-183,76,-197,173r-91,0v14,-116,75,-189,168,-235v-435,8,-812,-383,-812,-821v0,-441,380,-821,821,-821v441,0,821,380,821,821v0,389,-299,735,-639,802v91,11,249,162,366,162v82,0,139,-59,145,-139r91,0v-11,131,-101,222,-234,228v-150,7,-287,-170,-439,-170","w":1892},"R":{"d":"943,-1078v0,-232,-200,-431,-431,-431r-272,0r0,863r272,0v231,6,431,-200,431,-432xm1034,-1078v0,245,-184,461,-396,509r369,569r-111,0r-357,-556r-299,1r0,555r-90,0r0,-1600r420,0v251,28,464,254,464,522","w":1089},"S":{"d":"518,-70v208,0,389,-179,386,-386v-3,-223,-179,-364,-356,-430v-190,-72,-362,-172,-369,-396v-6,-180,157,-337,339,-337v142,0,278,99,316,218r-81,32v-30,-86,-128,-162,-235,-162v-134,0,-254,114,-249,249v6,165,123,246,261,299v225,87,458,246,462,527v4,255,-219,475,-474,475v-232,0,-440,-187,-468,-398r85,-31v16,181,189,340,383,340","w":1042},"T":{"d":"545,-1510r0,1510r-90,0r0,-1510r-405,0r0,-90r900,0r0,90r-405,0","w":1000,"k":{"y":182,"w":257,"u":257,"s":222,"r":257,"o":197,"i":232,"e":197,"c":197,"a":232,"O":201,"A":157,";":222,":":232,".":207,"-":232,",":180}},"U":{"d":"673,-77v232,0,431,-200,431,-431r0,-1092r91,0r0,1150v-28,251,-254,464,-522,464v-281,0,-523,-241,-523,-522r0,-1092r91,0r0,1092v-6,231,200,431,432,431","w":1345},"V":{"d":"145,-1600r500,1374r500,-1374r96,0r-596,1637r-595,-1637r95,0","w":1291,"k":{"o":142,"e":142,"a":177,"A":322,";":135,":":145,".":372,"-":177,",":377}},"W":{"d":"520,-76v117,0,225,-73,271,-164r0,-1360r90,0r0,1360v46,91,154,164,271,164v161,0,305,-140,305,-302r0,-1222r90,0r0,1230v1,206,-186,384,-395,384v-127,0,-246,-65,-316,-156v-69,90,-190,156,-316,156v-209,0,-395,-179,-395,-384r0,-1230r90,0r0,1222v-5,162,144,302,305,302","w":1672},"X":{"d":"50,0r507,-879r-416,-721r103,0r364,632r366,-632r103,0r-418,721r509,879r-103,0r-457,-790r-456,790r-102,0","w":1218},"Y":{"d":"600,-647r-550,-953r103,0r492,853r493,-853r103,0r-551,953r0,647r-90,0r0,-647","w":1291,"k":{"v":102,"u":202,"q":341,"p":202,"o":299,"e":299,"a":366,"A":291,";":292,":":303,".":341,"-":366,",":314}},"Z":{"d":"1022,-1510r-872,0r0,-90r1027,0r-873,1510r873,0r0,90r-1027,0","w":1327},"[":{"d":"215,285r220,0r0,90r-310,0r0,-1975r310,0r0,90r-220,0r0,1795","w":560},"\\":{"d":"777,0r-102,0r-725,-1600r103,0","w":727},"]":{"d":"345,-1510r-220,0r0,-90r310,0r0,1975r-310,0r0,-90r220,0r0,-1795","w":560},"^":{"d":"513,-1600r308,534r-104,0r-256,-443r-256,443r-105,0r309,-534r104,0","w":921},"_":{"d":"25,30r1000,0r0,90r-1000,0r0,-90","w":1050},"`":{"d":"316,-1287r163,187r-84,0r-245,-187r166,0","w":629},"a":{"d":"674,-1071v181,0,352,96,446,228r0,-139r90,0r0,982r-90,0r0,-200v-94,131,-265,228,-446,228v-294,0,-549,-255,-549,-549v0,-295,254,-550,549,-550xm674,-68v218,0,412,-170,446,-364r0,-178v-33,-195,-227,-365,-446,-365v-244,0,-454,210,-454,454v0,244,210,453,454,453","w":1360},"b":{"d":"685,28v-180,0,-351,-97,-445,-227r0,199r-90,0r0,-1600r90,0r0,756v94,-130,265,-227,445,-227v296,0,549,254,549,550v0,295,-254,549,-549,549xm685,-975v-217,0,-410,168,-445,360r0,188v36,191,228,359,445,359v244,0,454,-209,454,-453v0,-244,-210,-454,-454,-454","w":1359},"c":{"d":"639,-68v141,0,271,-68,353,-168r95,34v-94,132,-266,230,-448,230v-295,0,-549,-255,-549,-550v0,-294,255,-549,549,-549v182,0,353,98,448,229r-95,35v-80,-100,-213,-168,-353,-168v-243,0,-453,210,-453,453v0,243,210,454,453,454","w":1177},"d":{"d":"674,-1071v181,0,352,96,446,228r0,-757r90,0r0,1600r-90,0r0,-200v-94,131,-265,228,-446,228v-294,0,-549,-255,-549,-549v0,-295,254,-550,549,-550xm674,-68v218,0,412,-170,446,-364r0,-178v-33,-195,-227,-365,-446,-365v-244,0,-454,210,-454,454v0,244,210,453,454,453","w":1360},"e":{"d":"90,-522v0,-294,255,-549,549,-549v163,0,316,75,406,179r-708,708v85,77,185,116,302,116v141,0,271,-68,353,-168r95,34v-94,132,-266,230,-448,230v-295,0,-549,-255,-549,-550xm639,-975v-243,0,-453,210,-453,453v0,103,30,194,90,272r635,-635v-78,-60,-169,-90,-272,-90","w":1177},"f":{"d":"554,-1414v-130,-63,-274,45,-274,172r0,260r200,0r0,90r-200,0r0,892r-90,0r0,-892r-100,0r0,-90r100,0r0,-266v5,-181,196,-325,392,-246","w":523},"g":{"d":"674,-67v217,0,408,-167,445,-358r0,-190v-35,-192,-228,-360,-445,-360v-244,0,-454,210,-454,454v0,244,210,454,454,454xm312,56v81,99,213,168,353,168v233,0,443,-196,452,-419v-96,129,-264,223,-443,223v-294,0,-549,-255,-549,-549v0,-296,254,-549,549,-549v181,0,352,95,446,227r0,-139r90,0r0,763v8,291,-255,539,-545,539v-182,0,-354,-98,-448,-230","w":1364},"h":{"d":"514,-951v-118,0,-232,79,-274,170r0,781r-90,0r0,-1600r90,0r0,669v76,-73,167,-110,274,-110v226,0,394,165,395,384r0,657r-90,0r0,-649v5,-162,-144,-302,-305,-302","w":1059},"i":{"d":"260,-982r0,982r-90,0r0,-982r90,0xm215,-1330v48,0,90,41,90,89v0,49,-42,90,-90,90v-48,0,-90,-41,-90,-90v0,-48,42,-89,90,-89","w":430},"j":{"d":"49,138v81,-9,121,-55,121,-136r0,-984r90,0r0,982v0,141,-70,217,-211,228r0,-90xm215,-1330v48,0,90,41,90,89v0,49,-42,90,-90,90v-48,0,-90,-41,-90,-90v0,-48,42,-89,90,-89","w":455},"k":{"d":"629,-982r-242,300r386,682r-112,0r-333,-610r-88,109r0,501r-90,0r0,-1400r90,0r0,755r273,-337r116,0","w":823},"l":{"d":"240,-1600r0,1600r-90,0r0,-1600r90,0","w":390},"m":{"d":"441,-950v-104,0,-201,84,-201,184r0,766r-90,0r0,-982r90,0r0,23v56,-54,123,-81,201,-81v103,0,199,58,246,135v48,-75,144,-135,247,-135v155,0,291,130,291,282r0,758r-90,0r1,-758v-2,-104,-96,-192,-202,-192v-110,0,-202,94,-202,206r0,744r-90,0r1,-758v-2,-104,-96,-192,-202,-192","w":1375},"n":{"d":"526,-951v-127,0,-245,92,-286,188r0,763r-90,0r0,-982r90,0r0,63v82,-81,177,-122,286,-122v226,0,394,165,395,384r0,657r-90,0r0,-649v5,-162,-144,-302,-305,-302","w":1071},"o":{"d":"90,-521v0,-295,254,-550,549,-550v296,0,549,254,549,550v0,295,-254,549,-549,549v-294,0,-549,-255,-549,-549xm639,-975v-244,0,-454,210,-454,454v0,244,210,453,454,453v244,0,454,-209,454,-453v0,-244,-210,-454,-454,-454","w":1278},"p":{"d":"685,28v-180,0,-351,-97,-445,-227r0,574r-90,0r0,-1357r90,0r0,138v94,-129,265,-226,445,-226v296,0,549,253,549,549v0,295,-254,549,-549,549xm685,-975v-217,0,-410,168,-445,360r0,188v35,192,228,360,445,360v244,0,454,-210,454,-454v0,-244,-210,-454,-454,-454","w":1334},"q":{"d":"649,-1070v181,0,352,95,446,227r0,-139r90,0r0,1357r-90,0r0,-575v-94,131,-265,228,-446,228v-294,0,-549,-255,-549,-549v0,-296,254,-549,549,-549xm649,-67v219,0,413,-170,446,-365r0,-178v-33,-195,-227,-365,-446,-365v-244,0,-454,210,-454,454v0,244,210,454,454,454","w":1335},"r":{"d":"150,-982r90,0r0,179v63,-94,200,-205,309,-202r0,98v-57,3,-115,34,-176,95v-85,85,-133,186,-133,305r0,507r-90,0r0,-982","w":599,"k":{"-":109}},"s":{"d":"406,-66v108,0,202,-93,202,-203v0,-55,-20,-103,-59,-142v-21,-21,-63,-55,-129,-94v-75,-44,-130,-77,-159,-106v-46,-46,-69,-101,-69,-166v0,-127,109,-237,235,-237v121,0,227,95,224,212r-78,31v-11,-91,-54,-150,-146,-152v-78,-2,-152,67,-146,146v7,103,56,122,149,179v83,51,146,88,182,124v57,57,85,126,85,205v0,158,-134,293,-291,293v-149,0,-293,-135,-291,-273r89,-23v-4,113,92,206,202,206","w":802},"t":{"d":"290,-982r0,-418r90,0r0,418r200,0r0,90r-200,0r0,892r-90,0r0,-892r-200,0r0,-90r200,0","w":670},"u":{"d":"949,-370v-1,219,-169,384,-394,384v-236,0,-405,-161,-405,-384r0,-614r90,0r0,606v-3,165,145,302,314,302v161,0,305,-140,305,-302r0,-606r90,0r0,614","w":1099},"v":{"d":"532,-164r378,-818r104,0r-482,1009r-482,-1009r104,0","w":1064,"k":{".":208,",":213}},"w":{"d":"441,-76v104,0,201,-83,201,-184r0,-722r90,0r0,700v-4,113,92,206,202,206v105,0,201,-91,201,-192r0,-714r90,0r0,714v-1,152,-137,282,-291,282v-102,0,-197,-60,-246,-134v-49,73,-145,134,-247,134v-154,0,-291,-130,-291,-282r0,-714r90,0r-1,714v3,103,96,192,202,192","w":1375},"x":{"d":"741,-982r-256,443r311,539r-104,0r-256,-443r-256,443r-105,0r312,-539r-256,-443r104,0r201,347r200,-347r105,0","w":871},"y":{"d":"930,-982r-649,1357r-88,0r265,-556r-383,-801r102,0r326,704r326,-704r101,0","w":1005,"k":{".":219,",":223}},"z":{"d":"657,-878r-507,0r0,-90r662,0r-508,878r546,0r0,90r-700,0","w":1000},"{":{"d":"418,40v0,-68,21,-149,20,-224v-2,-168,-55,-284,-170,-347v-62,-34,-94,-50,-143,-41r0,-81v50,10,81,-7,143,-41v116,-63,170,-178,170,-347v0,-120,-37,-239,-4,-351v35,-120,149,-222,307,-205r0,75v-171,-16,-249,104,-249,275v0,73,20,145,19,213v-4,213,-85,351,-241,421v155,72,238,208,241,422v1,68,-19,140,-19,213v0,173,78,288,249,276r0,74v-13,2,-25,3,-38,3v-181,-13,-285,-139,-285,-335","w":866},"|":{"d":"240,-1600r0,1975r-90,0r0,-1975r90,0","w":390},"}":{"d":"448,-1266v0,68,-21,150,-20,225v2,168,55,284,170,347v62,34,94,50,143,41r0,81v-50,-10,-81,7,-143,41v-116,63,-168,178,-170,347v-1,75,20,156,20,224v0,197,-103,322,-285,335v-13,0,-25,-1,-38,-3r0,-74v171,12,249,-104,249,-276v0,-73,-20,-145,-19,-213v3,-213,86,-351,241,-422v-156,-70,-238,-208,-241,-421v-1,-68,19,-140,19,-213v0,-172,-77,-290,-249,-275r0,-75v13,-2,25,-3,38,-3v181,13,285,138,285,334","w":866},"~":{"d":"365,-873v-97,0,-142,84,-150,180r-90,-14v15,-140,89,-253,234,-253v71,0,164,33,279,99v126,72,216,109,273,109v97,0,144,-82,150,-180r91,14v-19,139,-88,253,-235,253v-70,0,-163,-33,-278,-99v-127,-73,-218,-109,-274,-109","w":1277},"\u00c7":{"d":"897,203v55,18,150,-3,128,-70v-35,-43,-87,-34,-160,-29r52,-85v-426,-2,-792,-385,-792,-819v0,-440,378,-819,819,-819v211,0,395,71,551,213r-68,62v-137,-122,-298,-183,-483,-183v-391,0,-727,337,-727,727v0,392,336,728,727,728v185,0,346,-61,483,-183r68,61v-145,132,-313,203,-506,212r-9,27v94,3,144,14,144,83v0,94,-80,141,-186,135v-35,-2,-62,-10,-82,-23","w":1595},"\u00d6":{"d":"946,-1623v441,0,821,380,821,821v0,441,-380,821,-821,821v-441,0,-821,-380,-821,-821v0,-441,380,-821,821,-821xm1675,-802v0,-392,-337,-729,-729,-729v-392,0,-729,337,-729,729v0,392,337,730,729,730v392,0,729,-338,729,-730xm796,-1848v48,0,90,41,90,89v0,49,-42,90,-90,90v-48,0,-90,-41,-90,-90v0,-48,42,-89,90,-89xm1096,-1848v48,0,90,41,90,89v0,49,-42,90,-90,90v-48,0,-90,-41,-90,-90v0,-48,42,-89,90,-89","w":1892},"\u00dc":{"d":"673,-77v232,0,431,-200,431,-431r0,-1092r91,0r0,1150v-28,251,-254,464,-522,464v-281,0,-523,-241,-523,-522r0,-1092r91,0r0,1092v-6,231,200,431,432,431xm523,-1838v48,0,90,41,90,89v0,49,-42,90,-90,90v-48,0,-90,-41,-90,-90v0,-48,42,-89,90,-89xm823,-1838v48,0,90,41,90,89v0,49,-42,90,-90,90v-48,0,-90,-41,-90,-90v0,-48,42,-89,90,-89","w":1345},"\u00e7":{"d":"596,200v55,18,150,-4,128,-70v-36,-43,-87,-34,-160,-29r44,-74v-277,-7,-518,-262,-518,-549v0,-294,255,-549,549,-549v182,0,353,98,448,229r-95,35v-80,-100,-213,-168,-353,-168v-243,0,-453,210,-453,453v0,243,210,454,453,454v141,0,271,-68,353,-168r95,34v-87,122,-241,222,-403,228r-6,16v96,3,139,15,145,84v-12,92,-81,140,-186,134v-35,-2,-62,-10,-83,-23","w":1177},"\u00f6":{"d":"90,-521v0,-295,254,-550,549,-550v296,0,549,254,549,550v0,295,-254,549,-549,549v-294,0,-549,-255,-549,-549xm639,-975v-244,0,-454,210,-454,454v0,244,210,453,454,453v244,0,454,-209,454,-453v0,-244,-210,-454,-454,-454xm489,-1330v48,0,90,41,90,89v0,49,-42,90,-90,90v-48,0,-90,-41,-90,-90v0,-48,42,-89,90,-89xm789,-1330v48,0,90,41,90,89v0,49,-42,90,-90,90v-48,0,-90,-41,-90,-90v0,-48,42,-89,90,-89","w":1278},"\u00fc":{"d":"949,-370v-1,219,-169,384,-394,384v-236,0,-405,-161,-405,-384r0,-614r90,0r0,606v-3,165,145,302,314,302v161,0,305,-140,305,-302r0,-606r90,0r0,614xm400,-1330v48,0,90,41,90,89v0,49,-42,90,-90,90v-48,0,-90,-41,-90,-90v0,-48,42,-89,90,-89xm700,-1330v48,0,90,41,90,89v0,49,-42,90,-90,90v-48,0,-90,-41,-90,-90v0,-48,42,-89,90,-89","w":1099},"\u0131":{"d":"260,-982r0,982r-90,0r0,-982r90,0","w":430},"\u20a3":{"d":"212,-468r0,-1132r700,0r0,90r-610,0r0,665r610,0r0,90r-610,0r0,287r288,0r0,90r-288,0r0,378r-90,0r0,-378r-162,0r0,-90r162,0","w":1012},"\u20a4":{"d":"506,-21v-140,3,-217,61,-319,104r-87,-103v83,-73,135,-123,156,-149v71,-84,107,-179,108,-286r-236,0r0,-90r229,0v-5,-40,-14,-80,-26,-120r-203,0r0,-90r171,0v-11,-27,-22,-54,-37,-79v-79,-138,-127,-238,-127,-381v0,-213,171,-391,396,-388v252,3,460,249,370,517r-86,-29v66,-209,-89,-396,-283,-396v-179,0,-314,140,-301,326v5,75,29,163,78,256v31,59,64,115,87,174r232,0r0,90r-202,0v11,39,18,79,23,120r179,0r0,90r-173,0v-4,132,-61,263,-170,392v83,-30,165,-45,246,-45v110,0,227,39,331,39v53,0,104,-6,151,-18r17,89v-54,13,-110,20,-168,20v-110,0,-252,-45,-356,-43","w":1130},"\u20ac":{"d":"817,28v-294,0,-558,-255,-549,-549r0,-64r-168,0r18,-90r150,0r0,-120r-126,0r18,-90r108,0r0,-166v-8,-294,255,-549,549,-549v152,0,281,54,388,161r-67,67v-89,-88,-196,-132,-321,-132v-244,0,-461,209,-454,453r0,166r657,0r-18,90r-639,0r0,120r615,0r-18,90r-597,0r0,64v-7,244,210,453,454,453v203,0,385,-149,435,-318r98,0v-50,220,-277,414,-533,414","w":1450},"\u011e":{"d":"217,-800v0,392,336,728,727,728v172,0,324,-53,455,-159r0,-488r90,0r0,520v-152,145,-334,218,-545,218v-441,0,-819,-378,-819,-819v0,-440,378,-819,819,-819v211,0,395,71,551,213r-68,62v-137,-122,-298,-183,-483,-183v-391,0,-727,337,-727,727xm1175,-1856v-9,114,-113,212,-234,212v-120,0,-231,-105,-236,-212r74,0v10,75,80,139,162,139v80,0,153,-64,161,-139r73,0","w":1620},"\u011f":{"d":"674,-67v217,0,408,-167,445,-358r0,-190v-35,-192,-228,-360,-445,-360v-244,0,-454,210,-454,454v0,244,210,454,454,454xm312,56v81,99,213,168,353,168v233,0,443,-196,452,-419v-96,129,-264,223,-443,223v-294,0,-549,-255,-549,-549v0,-296,254,-549,549,-549v181,0,352,95,446,227r0,-139r90,0r0,763v8,291,-255,539,-545,539v-182,0,-354,-98,-448,-230xm903,-1338v-9,114,-113,212,-234,212v-120,0,-231,-105,-236,-212r74,0v10,75,80,139,162,139v80,0,153,-64,161,-139r73,0","w":1364},"\u20a7":{"d":"864,-1078v0,-224,-172,-431,-388,-431r-245,0r0,863r245,0v215,5,388,-209,388,-432xm1459,-66v108,0,202,-93,202,-203v0,-55,-20,-103,-59,-142v-21,-21,-63,-55,-129,-94v-75,-44,-129,-77,-159,-106v-73,-70,-91,-187,-40,-281r-161,0r0,892r-90,0r0,-892r-106,0v-55,174,-238,337,-441,337r-245,0r0,555r-81,0r0,-1600r378,0v260,41,463,301,411,618r84,0r0,-418r90,0r0,418r248,0v35,-21,75,-32,119,-32v121,0,227,95,224,212r-78,31v-11,-91,-54,-150,-146,-152v-78,-2,-152,67,-146,146v7,103,56,122,149,179v83,51,146,88,182,124v57,57,85,126,85,205v0,158,-134,293,-291,293v-149,0,-293,-135,-291,-273r89,-23v-4,113,92,206,202,206","w":1855}}});
